%YAML:1.0
my_svm: !!opencv-ml-svm
   svm_type: C_SVC
   kernel: { type:RBF, gamma:2.2500000000000003e-03 }
   C: 3.1250000000000000e+02
   term_criteria: { epsilon:2.2204460492503131e-16, iterations:1000 }
   var_all: 7
   var_count: 7
   class_count: 6
   class_labels: !!opencv-matrix
      rows: 1
      cols: 6
      dt: i
      data: [ 1, 2, 3, 4, 5, 6 ]
   sv_total: 71
   support_vectors:
      - [ -4.12527561e+00, -2.23737311e+00, -2.15220690e+00,
          3.16915005e-01, -2.56209636e+00, -1.89218068e+00,
          -2.93281579e+00 ]
      - [ -9.86192465e-01, -3.80712819e+00, -4.04251242e+00,
          2.21331215e+00, -1.75887275e+00, -1.89218068e+00,
          -3.36523151e+00 ]
      - [ -2.03255343e+00, -2.23737311e+00, -4.04251242e+00,
          1.94239819e+00, -3.63306117e+00, -1.39397681e+00,
          -3.79764724e+00 ]
      - [ 6.01686351e-02, -2.23737311e+00, -2.15220690e+00,
          4.60011214e-02, -4.43628454e+00, -1.89218068e+00,
          -3.79764724e+00 ]
      - [ -9.86192465e-01, -2.23737311e+00, -2.15220690e+00,
          -2.24912748e-01, -4.70402575e+00, -1.89218068e+00,
          -3.79764724e+00 ]
      - [ -2.03255343e+00, -3.80712819e+00, -3.09735966e+00,
          2.75513983e+00, -1.49113154e+00, -2.39038467e+00,
          -1.63556898e+00 ]
      - [ -2.03255343e+00, -3.80712819e+00, -3.09735966e+00,
          -1.57948208e+00, -5.77499056e+00, -1.39397681e+00,
          -4.66247845e+00 ]
      - [ -3.07891464e+00, -3.80712819e+00, -3.09735966e+00,
          3.56788135e+00, -2.29435515e+00, -2.39038467e+00,
          -2.93281579e+00 ]
      - [ -2.03255343e+00, -2.23737311e+00, -4.04251242e+00,
          2.75513983e+00, -1.22339034e+00, -2.39038467e+00,
          -2.06798458e+00 ]
      - [ -9.86192465e-01, -2.23737311e+00, -2.15220690e+00,
          -7.66740501e-01, -3.90080237e+00, -1.89218068e+00,
          -3.36523151e+00 ]
      - [ 6.01686351e-02, -2.23737311e+00, -4.04251242e+00,
          1.40057051e+00, -3.90080237e+00, -1.39397681e+00,
          -3.79764724e+00 ]
      - [ -9.86192465e-01, -3.80712819e+00, -4.04251242e+00,
          4.65153694e+00, 1.15315706e-01, -2.39038467e+00,
          -2.06798458e+00 ]
      - [ 6.01686351e-02, -2.23737311e+00, -2.15220690e+00,
          1.40057051e+00, -3.09757876e+00, -2.39038467e+00,
          -3.79764724e+00 ]
      - [ 6.01686351e-02, -3.80712819e+00, -3.09735966e+00,
          1.40057051e+00, -3.63306117e+00, -1.89218068e+00,
          -3.36523151e+00 ]
      - [ -2.03255343e+00, -2.23737311e+00, -4.04251242e+00,
          2.21331215e+00, -2.56209636e+00, -1.89218068e+00,
          -3.36523151e+00 ]
      - [ 1.10652971e+00, -6.67617798e-01, 6.83251321e-01,
          5.87828875e-01, 2.25724530e+00, 1.59524703e+00, 1.39134049e+00 ]
      - [ -2.03255343e+00, -6.67617798e-01, 2.57355690e+00,
          -2.12130976e+00, 1.18628049e+00, 1.59524703e+00,
          1.39134049e+00 ]
      - [ 6.01686351e-02, -6.67617798e-01, -1.20705426e+00,
          4.60011214e-02, -1.52425498e-01, 1.59524703e+00,
          9.40935835e-02 ]
      - [ -3.07891464e+00, -6.67617798e-01, -1.20705426e+00,
          3.16915005e-01, 1.15315706e-01, 2.09345102e+00, 5.26509225e-01 ]
      - [ -9.86192465e-01, -6.67617798e-01, -2.61901468e-01,
          -2.93405151e+00, -1.52425498e-01, 3.58806276e+00,
          1.82375610e+00 ]
      - [ 2.15289092e+00, -6.67617798e-01, 1.62840402e+00,
          -2.66313767e+00, 1.72176290e+00, 1.59524703e+00,
          2.68858743e+00 ]
      - [ 6.01686351e-02, 2.47189260e+00, 6.83251321e-01, 8.58742714e-01,
          2.25724530e+00, 1.59524703e+00, 9.58924830e-01 ]
      - [ 6.01686351e-02, -6.67617798e-01, 6.83251321e-01,
          -2.66313767e+00, 6.50798142e-01, 4.08626699e+00,
          3.55341864e+00 ]
      - [ -9.86192465e-01, -6.67617798e-01, -1.20705426e+00,
          -1.57948208e+00, 1.15315706e-01, 5.98839104e-01,
          9.40935835e-02 ]
      - [ 6.01686351e-02, -6.67617798e-01, 1.62840402e+00,
          -2.39222360e+00, 1.15315706e-01, 1.09704304e+00,
          1.82375610e+00 ]
      - [ -9.86192465e-01, -6.67617798e-01, 6.83251321e-01,
          -1.30856824e+00, 6.50798142e-01, 1.00635134e-01,
          1.39134049e+00 ]
      - [ -9.86192465e-01, 2.47189260e+00, 6.83251321e-01,
          -1.03765440e+00, 9.18539345e-01, 1.00635134e-01,
          1.82375610e+00 ]
      - [ 1.10652971e+00, 2.47189260e+00, 1.62840402e+00, 4.60011214e-02,
          2.79272771e+00, 1.59524703e+00, 1.39134049e+00 ]
      - [ 6.01686351e-02, 2.47189260e+00, -2.61901468e-01,
          -4.95826602e-01, -4.20166701e-01, 1.59524703e+00,
          9.40935835e-02 ]
      - [ -2.03255343e+00, -6.67617798e-01, -2.61901468e-01,
          -1.85039592e+00, -4.20166701e-01, 1.00635134e-01,
          5.26509225e-01 ]
      - [ 1.10652971e+00, -6.67617798e-01, 6.83251321e-01,
          3.16915005e-01, 1.45402169e+00, 1.59524703e+00, 9.40935835e-02 ]
      - [ 6.01686351e-02, 9.02137399e-01, -2.61901468e-01,
          8.58742714e-01, 3.83056909e-01, 1.59524703e+00, 9.40935835e-02 ]
      - [ 6.01686351e-02, 9.02137399e-01, 1.62840402e+00,
          -3.20496535e+00, 9.18539345e-01, 4.08626699e+00,
          3.55341864e+00 ]
      - [ -2.03255343e+00, -2.23737311e+00, 6.83251321e-01,
          1.12965655e+00, 6.50798142e-01, -1.89218068e+00,
          5.26509225e-01 ]
      - [ 6.01686351e-02, -6.67617798e-01, -2.61901468e-01,
          1.12965655e+00, -4.20166701e-01, -1.39397681e+00,
          -1.20315337e+00 ]
      - [ 1.10652971e+00, 9.02137399e-01, -2.61901468e-01,
          8.58742714e-01, 1.18628049e+00, -8.95772815e-01,
          9.40935835e-02 ]
      - [ -3.07891464e+00, -2.23737311e+00, -4.04251242e+00,
          4.65153694e+00, 1.18628049e+00, -1.89218068e+00,
          -7.70737708e-01 ]
      - [ -5.17163658e+00, -2.23737311e+00, -3.09735966e+00,
          2.21331215e+00, -1.75887275e+00, -1.39397681e+00,
          -2.50040030e+00 ]
      - [ -9.86192465e-01, -2.23737311e+00, -3.09735966e+00,
          2.75513983e+00, -2.56209636e+00, -1.89218068e+00,
          -2.93281579e+00 ]
      - [ -9.86192465e-01, -2.23737311e+00, -3.09735966e+00,
          2.48422599e+00, -1.75887275e+00, -1.89218068e+00,
          -2.93281579e+00 ]
      - [ -3.07891464e+00, -3.80712819e+00, -3.09735966e+00,
          1.94239819e+00, -1.49113154e+00, -2.39038467e+00,
          -2.50040030e+00 ]
      - [ 6.01686351e-02, 9.02137399e-01, 6.83251321e-01, 1.67148435e+00,
          1.98950410e+00, -3.97568822e-01, 5.26509225e-01 ]
      - [ -2.03255343e+00, -3.80712819e+00, -3.09735966e+00,
          1.12965655e+00, -1.75887275e+00, -1.39397681e+00,
          -2.06798458e+00 ]
      - [ 6.01686351e-02, 2.47189260e+00, -2.61901468e-01,
          1.67148435e+00, 3.83056909e-01, -1.39397681e+00,
          -3.38322043e-01 ]
      - [ -2.03255343e+00, -3.80712819e+00, -3.09735966e+00,
          3.29696751e+00, -1.75887275e+00, -1.89218068e+00,
          -2.06798458e+00 ]
      - [ -2.03255343e+00, -2.23737311e+00, -3.09735966e+00,
          2.21331215e+00, -3.63306117e+00, -1.89218068e+00,
          -3.79764724e+00 ]
      - [ -9.86192465e-01, -3.80712819e+00, -3.09735966e+00,
          2.21331215e+00, -2.29435515e+00, -1.89218068e+00,
          -2.93281579e+00 ]
      - [ -4.12527561e+00, -5.37688351e+00, -3.09735966e+00,
          -8.89415646e+00, -7.64917898e+00, 7.57369471e+00,
          -3.38322043e-01 ]
      - [ -3.07891464e+00, -3.80712819e+00, -1.20705426e+00,
          -8.89415646e+00, -8.18466187e+00, 7.57369471e+00,
          9.40935835e-02 ]
      - [ 6.01686351e-02, -6.67617798e-01, 6.83251321e-01,
          -5.64318991e+00, -3.36531997e+00, 6.07908249e+00,
          1.82375610e+00 ]
      - [ 6.01686351e-02, -6.67617798e-01, 1.62840402e+00,
          -5.10136223e+00, -1.49113154e+00, 6.07908249e+00,
          3.12100291e+00 ]
      - [ -2.03255343e+00, 9.02137399e-01, -2.61901468e-01,
          -5.64318991e+00, -2.82983756e+00, 6.07908249e+00,
          2.25617170e+00 ]
      - [ -3.07891464e+00, -2.23737311e+00, -2.61901468e-01,
          -6.45593166e+00, -3.90080237e+00, 6.07908249e+00,
          1.82375610e+00 ]
      - [ 6.01686351e-02, -6.67617798e-01, 1.62840402e+00,
          -5.10136223e+00, -1.22339034e+00, 6.07908249e+00,
          3.55341864e+00 ]
      - [ -2.03255343e+00, 9.02137399e-01, 6.83251321e-01,
          -5.37227631e+00, -1.49113154e+00, 6.57728672e+00,
          3.55341864e+00 ]
      - [ 6.01686351e-02, -2.23737311e+00, -1.20705426e+00,
          -6.45593166e+00, -4.16854334e+00, 6.07908249e+00,
          1.82375610e+00 ]
      - [ -4.12527561e+00, -2.23737311e+00, 1.62840402e+00,
          -3.20496535e+00, 2.25724530e+00, 5.98839104e-01,
          2.25617170e+00 ]
      - [ -9.86192465e-01, 9.02137399e-01, 2.57355690e+00,
          -7.66740501e-01, 3.06046891e+00, -3.97568822e-01,
          1.39134049e+00 ]
      - [ 1.10652971e+00, -6.67617798e-01, 3.51870966e+00,
          -2.66313767e+00, 1.72176290e+00, 5.98839104e-01,
          1.39134049e+00 ]
      - [ -3.07891464e+00, -6.67617798e-01, 6.83251321e-01,
          -2.66313767e+00, 2.52498651e+00, 5.98839104e-01,
          2.25617170e+00 ]
      - [ 6.01686351e-02, -6.67617798e-01, 2.57355690e+00,
          -7.66740501e-01, 3.59595132e+00, -3.97568822e-01,
          2.25617170e+00 ]
      - [ -4.12527561e+00, -6.67617798e-01, 2.57355690e+00,
          -2.66313767e+00, 2.52498651e+00, 1.09704304e+00,
          2.25617170e+00 ]
      - [ 6.01686351e-02, 9.02137399e-01, 2.57355690e+00,
          -2.39222360e+00, 1.98950410e+00, 5.98839104e-01,
          1.82375610e+00 ]
      - [ 6.01686351e-02, 9.02137399e-01, 2.57355690e+00,
          -2.93405151e+00, 1.72176290e+00, 5.98839104e-01,
          1.39134049e+00 ]
      - [ 2.15289092e+00, 2.47189260e+00, 3.51870966e+00,
          -2.66313767e+00, 2.79272771e+00, 1.09704304e+00,
          2.25617170e+00 ]
      - [ -9.86192465e-01, -6.67617798e-01, 2.57355690e+00,
          -2.39222360e+00, 1.72176290e+00, 1.00635134e-01,
          9.58924830e-01 ]
      - [ 6.01686351e-02, 2.47189260e+00, 4.46386242e+00,
          -2.39222360e+00, 1.45402169e+00, 5.98839104e-01,
          1.82375610e+00 ]
      - [ 6.01686351e-02, 9.02137399e-01, 3.51870966e+00,
          -2.39222360e+00, 1.72176290e+00, 5.98839104e-01,
          5.26509225e-01 ]
      - [ 6.01686351e-02, -2.23737311e+00, 2.57355690e+00,
          -3.20496535e+00, 2.52498651e+00, 1.09704304e+00,
          2.68858743e+00 ]
      - [ 4.24561310e+00, 5.61140299e+00, 6.35416794e+00,
          -5.10136223e+00, -7.91692019e+00, -3.97568822e-01,
          -4.66247845e+00 ]
      - [ 2.15289092e+00, 4.04164791e+00, 5.40901518e+00,
          -3.74679303e+00, -8.72014427e+00, -1.39397681e+00,
          -5.09489393e+00 ]
   decision_functions:
      -
         sv_count: 8
         rho: -7.3355975555884967e-02
         alpha: [ 7.2889287063791368e+00, 2.4129291094448663e-01,
             1.8296208404499288e+00, 4.4865875454142499e+00,
             -1.4684143281740925e+00, -2.0676305157694421e+00,
             -1.5150621121087879e+00, -8.7953230471354846e+00 ]
         index: [ 0, 5, 8, 9, 17, 18, 23, 29 ]
      -
         sv_count: 20
         rho: -1.4386696096514092e+01
         alpha: [ 3.1250000000000000e+02, 9.6658657373017931e+00,
             3.1250000000000000e+02, 3.1250000000000000e+02,
             3.1250000000000000e+02, 2.4770955969965564e+02,
             4.1684685057175752e+00, 3.1250000000000000e+02,
             2.5794536207467706e+02, 8.5447605083230499e+01,
             1.3592707209091841e+01, -8.8457658660389228e+01,
             -1.5137816418309495e+02, -3.1250000000000000e+02,
             -3.1250000000000000e+02, -3.1250000000000000e+02,
             -6.6193745466190919e+01, -3.1250000000000000e+02,
             -3.1250000000000000e+02, -3.1250000000000000e+02 ]
         index: [ 0, 1, 2, 5, 7, 8, 10, 11, 12, 13, 14, 36, 37, 38, 39,
             40, 42, 44, 45, 46 ]
      -
         sv_count: 7
         rho: 9.2479708148070036e-02
         alpha: [ 5.2374982122396518e-01, 3.6445311607344810e+00,
             -6.2365397973862891e-01, -1.9696075285341108e+00,
             -3.5922453718805913e-01, -9.0123797154955332e-02,
             -1.1256711393426932e+00 ]
         index: [ 6, 9, 47, 49, 51, 52, 55 ]
      -
         sv_count: 6
         rho: -1.1204757761037938e-02
         alpha: [ 4.3338411416884224e+00, 7.0262431390450653e-01,
             1.3760575683247829e+00, -6.8136490357885560e-01,
             -1.5984844778590046e+00, -4.1326736424798503e+00 ]
         index: [ 0, 5, 9, 56, 59, 65 ]
      -
         sv_count: 3
         rho: -1.1383708647715836e-03
         alpha: [ 3.3368906938736513e+00, 4.6562306055679514e-01,
             -3.8025137544304459e+00 ]
         index: [ 3, 4, 70 ]
      -
         sv_count: 7
         rho: -7.8946877504515089e-01
         alpha: [ 1.3256360292389255e+01, 4.0987813604462765e+01,
             1.4369046931013905e+01, 6.6340992858070935e+00,
             1.7264843715090230e+01, -1.3484613367510738e+01,
             -7.9027550461252517e+01 ]
         index: [ 15, 21, 25, 30, 31, 35, 41 ]
      -
         sv_count: 5
         rho: -1.2500510972696874e-01
         alpha: [ 5.0846551765808030e+00, 1.1496572595296604e+01,
             1.7101620120110027e+01, -3.2937281195159443e+01,
             -7.4556669682799315e-01 ]
         index: [ 19, 22, 32, 53, 54 ]
      -
         sv_count: 7
         rho: -1.1539443716169679e+00
         alpha: [ 1.5140413179679695e+02, 9.2865112981654136e+01,
             5.3569786565107222e+01, 3.6936597179544419e+00,
             -7.8372562737522941e+01, -9.0321610929257275e+01,
             -1.3283851739473295e+02 ]
         index: [ 16, 20, 26, 27, 58, 59, 62 ]
      -
         sv_count: 3
         rho: -1.9442050331933431e-02
         alpha: [ 5.0469126385259688e-01, 2.9156325679042867e+00,
             -3.4203238317568831e+00 ]
         index: [ 24, 28, 70 ]
      -
         sv_count: 6
         rho: -5.5992230636773110e-02
         alpha: [ 6.2154634560481814e-01, 2.9786437902110294e+00,
             6.6203371233413943e-01, 4.6882817527376125e-01,
             -4.0887687606355501e+00, -6.4228326278819403e-01 ]
         index: [ 33, 35, 41, 42, 50, 51 ]
      -
         sv_count: 4
         rho: -1.5538275404007931e-01
         alpha: [ 4.5316948709332063e+00, 3.2302366794430654e+01,
             -3.6127799452446297e+01, -7.0626221291755387e-01 ]
         index: [ 33, 41, 57, 60 ]
      -
         sv_count: 4
         rho: -9.6714703458368148e-02
         alpha: [ 4.1810481416672435e-01, 1.7163176060502492e+00,
             1.1669128853139350e+00, -3.3013353055309076e+00 ]
         index: [ 34, 43, 45, 70 ]
      -
         sv_count: 6
         rho: 7.0979053461663499e-02
         alpha: [ 1.0354451099812310e+01, -7.5363620809321991e-02,
             -3.0128049207165901e+00, -4.4664387152455756e-02,
             -1.8287583532825641e-01, -7.0387423358056926e+00 ]
         index: [ 53, 61, 63, 64, 66, 68 ]
      -
         sv_count: 4
         rho: -7.9573752393424842e-03
         alpha: [ 1.6232183472614314e-01, 2.7912992830950025e+00,
             -6.0022819977006414e-01, -2.3533929180510809e+00 ]
         index: [ 48, 49, 69, 70 ]
      -
         sv_count: 4
         rho: 7.6640764775249308e-03
         alpha: [ 1.9434394581217354e+00, 1.3369116149009954e+00,
             -9.1666938042712176e-01, -2.3636816925956099e+00 ]
         index: [ 66, 67, 69, 70 ]
